{
  "version": "model_c_gnn_v1",
  "trained_at_utc": "2026-02-22T02:10:46.207332+00:00",
  "source_panel": "C:\\Users\\Pedro Henrique\\Desktop\\A-firma\\results\\validation\\risk_truth_panel.json",
  "checkpoint": {
    "feature_names": [
      "mean_confidence",
      "mean_quality",
      "pct_transition",
      "hazard_score",
      "hybrid_ews_score",
      "hybrid_var95_hist",
      "hybrid_ewma_sigma",
      "regime_age_days",
      "changepoint_flag",
      "pseudo_bifurcation_flag"
    ],
    "normalization": {
      "mean": [
        0.7083251425082898,
        0.8736947024852891,
        0.3169574443618296,
        0.891345092013242,
        0.3725365441671103,
        -0.021753940766553098,
        0.013007377210154063,
        4.0476190476190474,
        0.42857142857142855,
        0.0
      ],
      "std": [
        0.0778929948618551,
        0.0839822888477413,
        0.04490417583983419,
        0.09688046253204434,
        0.12972995798998077,
        0.026273313102827815,
        0.013627867380359858,
        2.2985749306946994,
        0.4948716593053935,
        1.0
      ]
    },
    "graph": {
      "k_neighbors": 4
    },
    "architecture": {
      "input_dim": 10,
      "hidden_dim": 16
    },
    "weights": {
      "W1": [
        [
          0.030424635571251385,
          -0.10365989802491328,
          0.07496068281889917,
          0.09391558493586877,
          -0.19523236634486635,
          -0.12934825217314183,
          0.012781999939829314,
          -0.03163400558016424,
          -0.0016622862474177738,
          -0.08507218831306428,
          0.08780540579009521,
          0.07771950973623709,
          0.0064136067165132225,
          0.11258670439344692,
          0.04665750063756936,
          -0.08588126143598303
        ],
        [
          0.03678195874426221,
          -0.09569154039582209,
          0.0877771509251802,
          -0.005073784918190956,
          -0.018664488720872327,
          -0.06760980778958817,
          0.12211170339545926,
          -0.015396161483994367,
          -0.042807993482316675,
          -0.03510498793408791,
          0.053127368244562746,
          0.03651984618972348,
          0.04115480114752532,
          0.043031349897841666,
          0.2138883970269332,
          -0.04062295095460823
        ],
        [
          -0.05112964690299933,
          -0.08140531955992454,
          0.06150003285351183,
          0.11283147537709265,
          -0.011143336397933778,
          -0.08439931475200578,
          -0.08235221176215023,
          0.06497382604719561,
          0.07424378667680645,
          0.05416962504095387,
          -0.0664371288480784,
          0.023168426752423525,
          0.011749253771764391,
          0.021841372047080327,
          0.08706561024073249,
          0.022365180024965677
        ],
        [
          0.06771176647247434,
          0.006757564566028038,
          0.028965197204875164,
          0.06284033695660182,
          -0.14568607591891813,
          -0.0317354924512538,
          -0.046993042560942964,
          -0.06365623094605866,
          -0.027564586255599585,
          0.14931665834276928,
          -0.08647690270790837,
          0.09670402684385074,
          -0.1680805418338661,
          -0.033422816660601706,
          0.016229876899820084,
          0.05853719572405636
        ],
        [
          0.07104628858287138,
          0.07895026593916028,
          -0.034863266210881816,
          -0.04617514600662037,
          0.08623099469741705,
          -0.020119659356164468,
          -0.12743804865510122,
          -0.11318321351113038,
          -0.09184515950882421,
          0.049379113576442986,
          0.014322872223563935,
          0.06887484164668789,
          -0.04241928903514056,
          0.01585292914321206,
          0.06251392089535902,
          -0.030773862751098557
        ],
        [
          0.045530030337686815,
          -0.06612502231450094,
          -0.036207407988402794,
          -0.038216325223273916,
          -0.11956954149022779,
          0.04885457250068747,
          -0.04686154192825146,
          0.001308955788057699,
          0.04790219427043393,
          0.044595500074976084,
          0.06652825627647768,
          -0.009853801410290262,
          -0.04241115949201147,
          -0.007960351585658679,
          -0.1685602197362245,
          -0.14454649231053474
        ],
        [
          -0.1320104123394008,
          -0.09961633300500279,
          0.03986339122696143,
          -0.09033634724749152,
          -0.03758323202522548,
          0.12944800695255526,
          -0.03560722831049798,
          0.07358679056370072,
          -0.09312668657857132,
          -0.020541980713786427,
          -0.09495047541739443,
          -0.03385523028345373,
          0.08408606904457896,
          -0.17252813210519402,
          0.0434218781546695,
          0.023767361147809394
        ],
        [
          -0.05921627870570037,
          -0.1442509227017028,
          0.007078483961134594,
          -0.0525900101880066,
          0.02312731093966413,
          0.002644105857112328,
          0.16001756558515834,
          -0.02418930668855536,
          -0.10207498472873801,
          0.01805031781624555,
          0.02186695998001495,
          0.13581674155081086,
          0.08326413348650058,
          0.03558866574865915,
          0.14617051644804824,
          -0.11876523377820547
        ],
        [
          -0.06379827208227175,
          -0.09257799476912934,
          -0.03901975270045827,
          -0.13737619544840232,
          0.06365950627434327,
          -0.02264753022100897,
          -0.1468994315553759,
          -0.1015447249696423,
          0.031354796375233036,
          0.08352001413526124,
          0.1995785448711169,
          0.2909446887194234,
          0.04151630991083695,
          -0.0988302152798394,
          -0.21293606569597548,
          0.0268195369441503
        ],
        [
          -0.08119661501051244,
          -0.041485912990727854,
          -0.06113627227007649,
          -0.014062203851284172,
          0.10647018204319103,
          0.015686022200592974,
          -0.01584445892155181,
          -0.10344117124536498,
          -0.16726745284530561,
          -0.04857246890012528,
          -0.005371805040082865,
          0.17658096679651392,
          0.013011828565112389,
          0.09815609297214607,
          -0.049869680257154554,
          -0.11835226852954461
        ]
      ],
      "b1": [
        -0.0003382429332099008,
        -0.0005710881717585115,
        0.0001230933564701363,
        -0.00020129065105237094,
        0.0006669784605380117,
        -0.0008203015542062699,
        -1.4266936627264507e-05,
        0.00019629573804561698,
        -0.00037360391348089576,
        -0.0003772829562467845,
        0.00017838451942063516,
        -0.00012619088158601037,
        9.53253715797755e-05,
        2.3072859878933003e-05,
        1.6983475817582936e-05,
        9.713842737496836e-05
      ],
      "W2": [
        [
          -0.0963959315567139,
          -0.07221928455665773,
          0.2125785990603827,
          -0.08194714461021509,
          0.08376947140336621,
          -0.09018088553857415,
          0.09304557946066049,
          0.038122966771794144,
          -0.015840292665694373,
          -0.004135761467814507,
          -0.06528341275486502,
          0.044595598456732916,
          -0.04544378270761543,
          -0.12232415877118483,
          -0.12771242330350796,
          0.017238093622760575
        ],
        [
          0.15771974815011675,
          0.016173954933702585,
          -0.011865986887989918,
          0.028812445081951233,
          0.13047008221154074,
          0.021908584082304616,
          -0.04104344134135098,
          0.110086946526528,
          0.04257904667080497,
          0.15333175297672805,
          0.018391765024643812,
          -0.12227711274379109,
          -0.13665183912474568,
          0.16500466915492054,
          0.17198365821621595,
          -0.017930391921364447
        ],
        [
          -0.038272777167589665,
          0.14599334825532362,
          -0.11057308212874954,
          -0.08936021608083682,
          0.06425746020418573,
          -0.03941272770566317,
          -0.0005115724160137722,
          -0.016354938235273904,
          0.03369884036204055,
          0.1405741122744993,
          0.009058264735121512,
          0.06432584696424497,
          -0.20477133675861708,
          -0.004857943741108147,
          -0.08422942092020143,
          -0.1217351360484788
        ],
        [
          -0.08770992150527884,
          -0.03318054266089031,
          0.09147153932125855,
          -0.1324873729161777,
          0.0030737689836164163,
          -0.0483578103929097,
          -0.03272801220862764,
          0.09993483706854231,
          0.05361479322386238,
          0.13352583795273223,
          -0.015314893276445026,
          -0.06945403090209269,
          -0.022359034714583097,
          0.024279508036763993,
          0.017632575085370104,
          -0.10830875856941814
        ],
        [
          0.009038125890805273,
          0.022974698841270017,
          0.251422907690602,
          0.188073099650523,
          -0.08518558215991781,
          -0.02871358139907663,
          -0.1461686922937668,
          -0.059562105653032285,
          0.031185806105272548,
          0.120387794906745,
          -0.07276690430430842,
          -0.06535549723210322,
          -0.21447138257591777,
          -0.01609804055136718,
          -0.1064611779649761,
          -0.052880448046262296
        ],
        [
          -0.08758091752701147,
          -0.009362634700335968,
          -0.17556829941412183,
          -0.1463146470753559,
          0.2126793319975574,
          -0.12858978273530966,
          -0.10954702238157647,
          0.18331666839095734,
          0.290065817180336,
          -0.11702746017615895,
          -0.036771459427401544,
          0.03409833456837964,
          0.17266244493249405,
          -0.0985263388648721,
          -0.02460246787625722,
          0.07764053294980329
        ],
        [
          0.04342446675625623,
          -0.03767079906259711,
          -0.013362330862094885,
          -0.1373589063592494,
          -0.023795909974769845,
          -0.026606801642395893,
          0.023189145257591026,
          -0.05535893549150885,
          0.04716147559636119,
          0.10117947324232733,
          0.015461982866412111,
          0.03513769773247655,
          0.005309159935361003,
          -2.0749222317327532e-05,
          -0.07207889181186358,
          0.03161146959647072
        ],
        [
          -0.00971699243971298,
          0.20908251576327633,
          0.15714432030736897,
          0.03863526853863229,
          -0.07621053425321678,
          -0.11110773774997247,
          0.1189714437397479,
          0.026185688850437774,
          0.04792215815739274,
          -0.17425133226523373,
          0.09263411321860235,
          0.045383865401357366,
          -0.11090989654526452,
          -0.047080750229707986,
          0.02629367655855269,
          0.005240387589632019
        ],
        [
          -0.029182079030953916,
          -0.010240885137996928,
          -0.025176303903889988,
          0.015363042128609828,
          0.1469867984161603,
          -0.2563641335625517,
          -0.023656621437239067,
          0.01741252528120963,
          0.0294335617525322,
          -0.037173408449042336,
          -0.17541202596759814,
          0.03279826731944192,
          0.17252786350316762,
          -0.15314647711863774,
          0.08618173438021688,
          -0.03281312289049614
        ],
        [
          -0.006125080067622452,
          -0.1050681776837117,
          -0.0334183854441627,
          0.13013649683172612,
          0.05821645030072048,
          0.17302097834603458,
          0.11759998406972859,
          0.043534985094798674,
          0.17399198045164044,
          0.04381687217134136,
          0.0827184103126513,
          -0.02962604428938827,
          0.006646600869424235,
          -0.0695710120606569,
          0.09863990790417747,
          -0.11768905053942154
        ],
        [
          0.07814120841360617,
          -0.018981963510780003,
          0.11697407468128887,
          0.0752077114421421,
          0.18186235550719854,
          0.0729875163463933,
          -0.15701549368786422,
          -0.006936568882126674,
          -0.11720952512900278,
          -0.05178325567151845,
          0.15095045121358658,
          0.06369344778083666,
          -0.06980922142554179,
          -0.10118273512412593,
          0.0031123185323937604,
          -0.12151011513167892
        ],
        [
          -0.06703353912870702,
          0.031273325016924786,
          0.11537769110557439,
          0.061125095306054145,
          -0.22883030112584796,
          0.03039901612209815,
          0.007194718470179543,
          0.0409702728808821,
          0.16120598410157586,
          -0.2061075187374611,
          -0.05902088230192883,
          0.0590256174805112,
          -0.15796976225715642,
          0.14751938480415328,
          0.03656390822802668,
          0.08455686933424349
        ],
        [
          -0.05702589393587097,
          0.0811952172526912,
          0.10672041735914163,
          0.023396675781209304,
          0.023409280262009998,
          0.0270015871302226,
          -0.08623098707469437,
          -0.01469487275245296,
          -0.015209839683307967,
          0.03832034019028601,
          0.09979633861582277,
          -0.10576363175032535,
          -0.012485910930387282,
          0.14795709100553384,
          -0.07433516137279086,
          -0.08212639080673294
        ],
        [
          0.0202063569760731,
          0.08441484546876055,
          0.0011373555600963058,
          0.13270918464954548,
          0.08558273642306284,
          0.08408183494287368,
          0.05534519596627047,
          0.23239161532370375,
          -0.02054821466309256,
          -0.20013467639046859,
          0.16028096836834654,
          -0.045678913161110446,
          0.010775106532337958,
          0.13082325263306507,
          -0.1600383146970444,
          -0.12501461367746658
        ],
        [
          -0.15993575541341656,
          -0.0793627274931735,
          0.043910245093924834,
          0.052525382443311064,
          0.027594622824518935,
          -0.14110751598067714,
          -0.23073329723492467,
          0.005421243575789086,
          -0.04712561702657961,
          0.04590864350915314,
          0.07004540020980432,
          0.013781987318860996,
          0.07592214718393049,
          0.022895954998603335,
          0.052846220134181575,
          -0.07038281612717093
        ],
        [
          -0.01793960091880906,
          0.019762007226267763,
          0.08194390694716863,
          -0.03907583145228173,
          0.05207129095410864,
          -0.026555914481400766,
          -0.011740120118297335,
          0.0825891840207779,
          -0.1992247158946233,
          -0.1295205858207922,
          -0.14800401170179808,
          -0.23308192243268552,
          -0.06774510101691639,
          0.07492355584004055,
          -0.028597256402807168,
          0.019755287595837057
        ]
      ],
      "b2": [
        0.0,
        0.001578835362147806,
        -0.00014389533069024074,
        0.0025433674026836494,
        0.00022979967096249383,
        -4.66046423164247e-05,
        0.0,
        -0.0035542548994623216,
        -0.0021294943189661946,
        -0.0004432728775031125,
        0.0006585906539339652,
        0.00023900978790433904,
        0.0,
        0.0009446835151987301,
        -0.0017129593152655851,
        0.0
      ],
      "w_out": [
        0.10879112183322426,
        0.13255974774786886,
        -0.005012091618763989,
        0.1364435412247317,
        0.00987598850666163,
        -0.0836539417321967,
        -0.05936874988607886,
        -0.14685104620062506,
        -0.08789188839235193,
        -0.035731826225740046,
        0.07990720547387799,
        0.17187731164871836,
        -0.13805238906747003,
        0.03929546184481913,
        -0.10380812387942763,
        0.04741277930333233
      ],
      "b_out": 0.024099920499788912
    },
    "training": {
      "seed": 42,
      "epochs": 600,
      "lr": 0.01,
      "l2": 0.0001,
      "loss_last": 0.0005929787285200227,
      "loss_best": 0.0005929787285200227,
      "rmse": 0.024293161706650496,
      "n_nodes": 21
    }
  },
  "sanity_inference": {
    "node_scores": [
      0.5070183321659179,
      0.5070542949690428,
      0.5050926049293549,
      0.5069859406158405,
      0.5047701923368066,
      0.5050318365500936,
      0.5044637163396865,
      0.5060934097138595,
      0.5044637163396865,
      0.5072952092986247,
      0.5062404693935164,
      0.5079444095028672,
      0.5061057733822144,
      0.5074763686114329,
      0.5071553362585127,
      0.5079444095028672,
      0.5062650883742585,
      0.5069449862474442,
      0.5078027726332307,
      0.5058346365105789,
      0.5071442005121843
    ],
    "risk_score": 0.5064346525803819,
    "confidence": 0.9988974545928155
  }
}